svm_type one_class
kernel_type rbf
gamma 0.02
nr_class 2
total_sv 19
rho 11.611756
SV
1 1:-0.985031 2:0.786844 3:-0.425033 4:-0.995911 5:-0.998211 6:-0.899249 7:0.533837 8:0.884812 9:0.882480 10:0.220605 11:0.563901 12:0.290297 
1 1:-1.000000 2:0.772442 3:-0.375172 4:-0.976055 5:-1.000000 6:-0.866707 7:0.509128 8:0.908463 9:0.901781 10:0.145759 11:0.563896 12:0.289020 
0.439910 1:-0.985473 2:0.748465 3:-0.401799 4:-0.990358 5:-0.990605 6:-0.923732 7:0.540678 8:0.899738 9:0.886377 10:0.141494 11:0.495976 12:0.295223 
0.473463 1:-0.780693 2:0.733825 3:-0.865312 4:-0.918109 5:-0.749227 6:-0.422409 7:0.743808 8:-0.262788 9:-0.382195 10:-0.857276 11:-0.374070 12:-0.327768 
0.123710 1:-0.762258 2:0.712634 3:-0.470255 4:-0.808867 5:-0.835370 6:0.763880 7:0.107012 8:0.091845 9:-0.661915 10:-0.815669 11:-0.137002 12:0.713647 
0.153565 1:-0.686960 2:0.828831 3:-0.633577 4:-0.552675 5:-0.528548 6:0.997080 7:-0.344673 8:-0.382031 9:0.193968 10:-0.215784 11:0.960101 12:0.768645 
0.950321 1:-0.686960 2:0.828831 3:-0.633577 4:-0.552675 5:-0.528548 6:0.997080 7:-0.344673 8:-0.382031 9:0.193968 10:-0.215784 11:0.960101 12:0.768645 
0.294191 1:-0.500600 2:0.091363 3:-0.592754 4:-0.486175 5:-0.629053 6:0.932828 7:-0.243186 8:-0.275312 9:0.168541 10:1.000000 11:0.197438 12:-0.656094 
1 1:-0.780999 2:0.102568 3:-0.957478 4:-0.907231 5:-0.781477 6:0.118310 7:0.458151 8:-0.559763 9:-0.722057 10:-0.813382 11:0.204572 12:0.896491 
1 1:-0.469697 2:0.150998 3:-0.673899 4:-0.358572 5:-0.505711 6:1.000000 7:-0.449400 8:-0.109615 9:0.723845 10:0.521889 11:0.471178 12:-1.000000 
1 1:-0.740352 2:0.784894 3:-0.993369 4:-0.900284 5:-0.716775 6:0.760211 7:0.635512 8:-0.650311 9:-0.717094 10:-0.224165 11:-0.351902 12:-0.456867 
0.222343 1:-0.509221 2:-0.343824 3:-0.942342 4:-0.670628 5:-0.376148 6:-0.612558 7:0.574685 8:-0.890616 9:0.411563 10:-0.037057 11:-0.754195 12:0.679623 
0.128299 1:-0.781025 2:-0.133608 3:0.728422 4:-0.081020 5:-0.446915 6:0.846881 7:-0.384601 8:0.901811 9:0.658608 10:0.100304 11:0.482400 12:0.074172 
1 1:0.610906 2:0.416744 3:0.555996 4:0.623512 5:0.863312 6:-0.852384 7:-0.879093 8:0.663159 9:0.180963 10:-0.320311 11:-0.186195 12:-0.124794 
0.814198 1:-0.353944 2:0.720093 3:-0.827533 4:-0.552420 5:-0.228871 6:-0.771991 7:0.517723 8:-0.776098 9:0.740834 10:-0.152508 11:-0.887400 12:0.818384 
1 1:0.280924 2:-0.412196 3:0.847950 4:0.518292 5:0.654472 6:-0.147350 7:-0.712406 8:0.751938 9:0.522324 10:0.213027 11:0.075944 12:0.228784 
1 1:-0.585661 2:-1.000000 3:-0.873849 4:-0.727324 5:-0.481453 6:-0.210191 7:0.480888 8:-0.373371 9:0.509878 10:0.096340 11:-0.882510 12:0.470784 
1 1:1.000000 2:-0.285769 3:0.712746 4:1.000000 5:1.000000 6:-0.299852 7:-1.000000 8:1.000000 9:0.335673 10:0.211404 11:-0.090798 12:0.206380 
1 1:0.315845 2:0.720419 3:1.000000 4:0.343644 5:0.782195 6:-0.843671 7:-0.421435 8:0.673917 9:0.135611 10:-0.056216 11:-0.107961 12:-0.022890 
