svm_type one_class
kernel_type rbf
gamma 1.28
nr_class 2
total_sv 82
rho 0.751794
SV
0.09699693016520124 1:-0.761665 2:0.71055 3:-0.645733 4:-0.745337 5:-0.715811 6:-0.429776 7:0.662415 8:0.0971722 9:0.20937 10:-0.484262 11:-0.475627 12:-0.725876 
0.06155262923535536 1:-0.766797 2:0.440341 3:-0.749709 4:-0.80287 5:-0.714358 6:-0.493315 7:0.733943 8:0.0793177 9:0.0338741 10:-0.421249 11:-0.579891 12:-0.68568 
0.2987657357099252 1:-0.811744 2:0.735668 3:-0.700384 4:-0.847737 5:-0.789333 6:-0.547164 7:0.860121 8:0.338003 9:0.325626 10:-0.308372 11:-0.351582 12:-0.236286 
0.161699808774724 1:-0.794109 2:0.877017 3:-0.19769 4:-0.56635 5:-0.767442 6:0.167677 7:0.330046 8:0.33702 9:0.444251 10:-0.490375 11:0.0688305 12:-0.368274 
0.06585037391448204 1:-0.825016 2:0.759412 3:-0.298136 4:-0.534422 5:-0.752538 6:0.533143 7:0.236575 8:0.205994 9:0.452528 10:-0.359712 11:0.0127344 12:-0.0592634 
0.6013740191940929 1:-0.882195 2:-0.419332 3:-0.895815 4:-0.997161 5:-0.878394 6:-0.265073 7:0.852603 8:0.502717 9:0.060674 10:-0.31116 11:-0.521256 12:-0.496162 
0.4208789079400322 1:-0.444804 2:0.771384 3:0.116302 4:-0.211041 5:-0.0979645 6:-0.549303 7:0.0702899 8:0.406831 9:0.304384 10:-0.695698 11:-0.249344 12:-0.511171 
0.02804105992802885 1:-0.757651 2:0.569981 3:-0.654462 4:-0.787572 5:-0.754565 6:-0.562025 7:0.750866 8:0.258855 9:0.19969 10:-0.482825 11:-0.140621 12:0.00353728 
0.04781084104259557 1:-0.165655 2:0.850282 3:-0.107263 4:-0.0319317 5:0.0508128 6:-0.415148 7:-0.197711 8:0.0752174 9:0.629022 10:-0.329728 11:0.0838642 12:-0.396883 
0.1815176435407402 1:-0.263547 2:0.894846 3:-0.0928591 4:-0.0595896 5:-0.0523437 6:-0.2124 7:-0.204989 8:0.0661376 9:0.630157 10:-0.270267 11:0.218973 12:-0.454086 
0.02298262655657022 1:-0.333466 2:0.64114 3:-0.00660676 4:0.00063356 5:-0.0121558 6:0.0256367 7:-0.310007 8:0.113596 9:0.567634 10:-0.0986824 11:0.535929 12:-0.0404858 
0.08756682127005137 1:-0.432593 2:0.757847 3:-0.531371 4:-0.424419 5:-0.341553 6:-0.582387 7:0.269613 8:-0.252317 9:0.216785 10:-0.477799 11:-0.268984 12:-0.513904 
0.09398939888708673 1:-0.436883 2:0.706293 3:-0.516658 4:-0.40432 5:-0.323983 6:-0.605098 7:0.234123 8:-0.271986 9:0.205198 10:-0.448866 11:-0.0670092 12:-0.472665 
0.138212342199124 1:-0.745306 2:0.740156 3:-0.0661596 4:-0.389476 5:-0.621606 6:0.532207 7:0.0815486 8:0.294147 9:0.736512 10:0.0269984 11:0.555177 12:-0.104465 
0.1282893757724471 1:-0.620806 2:0.756105 3:-0.509552 4:-0.577651 5:-0.476323 6:-0.405465 7:0.507301 8:0.0608233 9:0.552247 10:0.00342055 11:0.156894 12:-0.424505 
0.2810929180599894 1:-0.953426 2:0.830183 3:-0.400517 4:-0.865626 5:-0.997762 6:-0.541976 7:0.415231 8:0.729087 9:0.712182 10:0.220171 11:0.538232 12:0.220106 
0.1146868404382697 1:-0.908309 2:0.863473 3:-0.187363 4:-0.714601 5:-0.963511 6:-0.589705 7:0.3626 8:0.675329 9:0.838448 10:0.122584 11:0.577107 12:0.0404376 
0.2934048555856428 1:-0.894719 2:0.817509 3:-0.209752 4:-0.717957 5:-0.950587 6:-0.532438 7:0.307682 8:0.619677 9:0.731161 10:0.151915 11:0.760612 12:0.325039 
0.04208601951737145 1:-0.931203 2:0.872252 3:-0.166156 4:-0.639158 5:-0.957767 6:0.353268 7:0.184074 8:0.381794 9:0.665945 10:0.0714457 11:0.437663 12:0.142351 
0.2825045435200842 1:-0.859867 2:0.847172 3:-0.168447 4:-0.544524 5:-0.825918 6:0.551715 7:0.137091 8:0.320967 9:0.684396 10:0.0838776 11:0.528582 12:0.089285 
0.1685071824819363 1:-0.535128 2:-0.133297 3:-0.842898 4:-0.542446 5:-0.557537 6:-0.0634607 7:0.0741337 8:-0.959583 9:-0.353198 10:-0.378551 11:0.170648 12:0.00304922 
0.02521781237532344 1:-0.568595 2:0.0682101 3:-0.757706 4:-0.473145 5:-0.621013 6:0.635609 7:-0.162486 8:-0.825447 9:-0.189906 10:-0.273527 11:0.729731 12:0.61138 
0.04037404953710234 1:-0.462992 2:-0.0360244 3:-0.697297 4:-0.38411 5:-0.444183 6:0.454992 7:-0.214837 8:-0.752101 9:-0.0846833 10:-0.293665 11:0.744319 12:0.447256 
0.2846657227454303 1:-0.599028 2:-0.278463 3:-0.828728 4:-0.58242 5:-0.615015 6:-0.0169283 7:0.137227 8:-0.888877 9:-0.395616 10:-0.596627 11:0.0533201 12:0.169021 
0.3502869598349562 1:-0.703315 2:0.791683 3:-0.834612 4:-0.776265 5:-0.730507 6:-0.154828 7:0.616816 8:-0.324422 9:-0.43588 10:-0.860077 11:-0.396814 12:-0.367587 
0.3551540627801744 1:-0.434713 2:0.834268 3:-0.877886 4:-0.473481 5:-0.520357 6:0.932018 7:-0.0911256 8:-0.869538 9:-0.0466474 10:0.404304 11:-0.089124 12:0.41512 
0.1147570224532971 1:-0.588103 2:0.963175 3:-0.879863 4:-0.649978 5:-0.66715 6:0.260855 7:0.296756 8:-0.907832 9:-0.423741 10:-0.280853 11:0.08997 12:0.45941 
0.2919105001492039 1:-0.0227785 2:0.673335 3:-0.0348769 4:0.26537 5:0.200519 6:0.309616 7:-0.84094 8:-0.242916 9:0.184784 10:-0.180488 11:0.507173 12:-0.0213809 
0.2720872719323223 1:-0.409504 2:1 3:-0.347217 4:-0.171377 5:-0.489486 6:0.421465 7:-0.688266 8:-0.850872 9:-0.146661 10:0.319468 11:0.75865 12:-0.149044 
0.3464387549875831 1:-0.680751 2:0.771061 3:-0.444982 4:-0.65011 5:-0.822971 6:0.808296 7:0.00852887 8:0.00249674 9:-0.6925 10:-0.815697 11:-0.163247 12:0.620266 
0.3717051748724126 1:-0.415444 2:0.703205 3:-0.136431 4:-0.221883 5:-0.49095 6:0.529329 7:-0.449481 8:-0.510436 9:-0.671643 10:-0.51733 11:0.710972 12:0.148145 
0.2053140538343533 1:-0.526328 2:0.831425 3:-0.753584 4:-0.491792 5:-0.557037 6:0.13418 7:-0.0521659 8:-0.961884 9:-0.163773 10:-0.221279 11:0.658445 12:0.62564 
0.1035570044122633 1:-0.522093 2:0.47551 3:-0.723076 4:-0.554504 5:-0.641422 6:0.406266 7:0.20312 8:-0.609617 9:-0.405248 10:0.433327 11:0.296215 12:0.163709 
0.4200056832490613 1:-0.490066 2:0.825833 3:-0.287709 4:-0.328879 5:-0.478107 6:0.467179 7:-0.0851512 8:-0.331299 9:-0.176013 10:-0.646455 11:-0.778934 12:0.237151 
0.4907123915367435 1:-0.38675 2:0.61889 3:0.256943 4:0.238362 5:-0.284016 6:0.928624 7:-0.77756 8:0.211988 9:0.160155 10:0.779995 11:0.485376 12:-0.557866 
0.2249658357899657 1:-0.588587 2:0.863633 3:-0.605571 4:-0.35492 5:-0.493634 6:0.997628 7:-0.42186 8:-0.431713 9:0.085956 10:-0.216047 11:0.934758 12:0.672252 
0.4481582434940616 1:-0.0103201 2:0.849097 3:0.0127953 4:0.280163 5:-0.106136 6:0.429336 7:-0.741422 8:-0.167835 9:0.42138 10:0.363115 11:-0.225058 12:0.234492 
0.176426255033148 1:-0.491694 2:0.873546 3:-0.758291 4:-0.346488 5:-0.303295 6:0.977415 7:-0.331337 8:-0.592899 9:0.228113 10:-0.232563 11:0.150715 12:0.660141 
0.2524587559639319 1:-0.694386 2:0.334257 3:-0.252156 4:-0.602171 5:-0.776494 6:0.276745 7:0.088395 8:-0.16326 9:-1 10:-0.86433 11:-0.122918 12:0.308003 
0.4061779129927529 1:-0.360482 2:0.276108 3:-0.565431 4:-0.278298 5:-0.601514 6:0.945463 7:-0.325158 8:-0.333927 9:0.0628294 10:0.999261 11:0.171468 12:-0.674444 
0.3773140492147352 1:-0.703596 2:0.284853 3:-0.924046 4:-0.763445 5:-0.765123 6:0.284167 7:0.343104 8:-0.594554 9:-0.747206 10:-0.813394 11:0.178592 12:0.793088 
0.3060083528572237 1:-0.210792 2:0.0047031 3:-0.200036 4:0.149365 5:-0.165997 6:0.764216 7:-0.70626 8:-0.0946149 9:0.346904 10:0.650917 11:0.162977 12:-0.948419 
0.3110429809624125 1:-0.279872 2:0.568406 3:-0.380778 4:-0.216373 5:-0.385915 6:-0.176041 7:-0.413165 8:-0.666582 9:-0.013645 10:0.430571 11:0.5761 12:0.378645 
0.3468965404553621 1:-0.322656 2:0.322505 3:-0.646232 4:-0.131602 5:-0.469122 6:1 7:-0.521331 8:-0.182329 9:0.568382 10:0.520869 11:0.445975 12:-1 
0.53912176239459 1:-0.653938 2:0.828629 3:-0.959341 4:-0.755443 5:-0.695674 6:0.805318 7:0.512111 8:-0.677537 9:-0.742687 10:-0.224425 11:-0.378324 12:-0.48613 
0.2122469374039012 1:-0.374183 2:0.808695 3:-0.610193 4:-0.164217 5:-0.298905 6:0.789001 7:-0.613913 8:-0.66768 9:0.397734 10:0.0577939 11:0.800161 12:-0.223975 
0.04179785542440616 1:-0.678302 2:0.139111 3:-0.397499 4:-0.51156 5:-0.68978 6:0.628098 7:0.104007 8:-0.270966 9:-0.69336 10:-0.465712 11:0.14285 12:-0.248229 
0.04835074478915168 1:-0.70733 2:0.829169 3:-0.716971 4:-0.616341 5:-0.669308 6:0.65768 7:0.337555 8:-0.47148 9:-0.226927 10:-1 11:-0.204419 12:0.22695 
0.2160195126007413 1:-0.739212 2:0.332641 3:-0.543593 4:-0.564014 5:-0.718776 6:0.572561 7:0.122926 8:-0.408159 9:-0.460242 10:-0.805217 11:0.260555 12:-0.428236 
0.008101219211224525 1:-0.308175 2:0.867205 3:0.172437 4:0.0440529 5:-0.195051 6:0.308152 7:-0.327126 8:0.0399509 9:0.11961 10:0.109388 11:0.0393468 12:-0.318246 
0.3189352006825351 1:-0.381754 2:0.334862 3:-0.552202 4:-0.321952 5:-0.508078 6:0.855529 7:-0.39534 8:-0.602285 9:0.257455 10:0.560837 11:0.668458 12:0.890934 
0.509055126691432 1:-0.606178 2:-0.170101 3:-0.4975 4:-0.436563 5:-0.657853 6:0.878931 7:-0.155062 8:-0.112036 9:0.212337 10:-0.0216288 11:1 12:0.714594 
0.4592283705127835 1:-0.467535 2:0.133529 3:-0.953937 4:-0.692394 5:-0.451856 6:-0.238489 7:1 8:-0.518704 9:0.162297 10:1 11:-0.718796 12:-0.105287 
0.07462050054608294 1:0.390078 2:-0.255695 3:0.0871128 4:0.407061 5:0.521157 6:-0.602351 7:-0.441927 8:0.359331 9:0.238925 10:-0.432057 11:0.0304314 12:-0.452276 
0.2369707239180301 1:-0.2009 2:-0.0116053 3:-0.880712 4:-0.305465 5:-0.220182 6:-0.142139 7:0.257221 8:-0.911015 9:0.860433 10:0.218023 11:-0.776599 12:0.889384 
0.4796536768736661 1:-0.700758 2:-0.772997 3:0.713581 4:0.181079 5:-0.408115 6:0.873943 7:-0.388047 8:0.697608 9:0.434668 10:0.0620267 11:0.367067 12:-0.0221115 
0.7175368616855284 1:-1 2:-0.98395 3:-0.481017 4:-1 5:-1 6:-1 7:0.0304164 8:0.646195 9:0.296583 10:0.139134 11:0.099774 12:0.157195 
0.1606586374450131 1:-0.423892 2:-0.591776 3:0.269381 4:0.151843 5:-0.289547 6:0.591522 7:-0.3701 8:0.471942 9:0.426925 10:0.0321334 11:0.207538 12:-0.300344 
0.2185195910706296 1:0.222546 2:0.765437 3:0.322482 4:0.291515 5:0.411289 6:-0.561804 7:-0.468502 8:0.239529 9:0.204998 10:-0.385026 11:-0.368798 12:0.0211136 
0.2784831297714916 1:-0.403485 2:-0.125882 3:-1 4:-0.648354 5:-0.454679 6:-0.213323 7:0.708383 8:-0.530536 9:-0.0410648 10:0.625733 11:-0.919804 12:-0.430161 
0.2901387549952237 1:0.766924 2:0.523065 3:0.229142 4:0.759153 5:0.639362 6:-0.161822 7:-1 8:0.269058 9:0.492687 10:-0.0375451 11:0.0837146 12:-0.0452998 
0.4207038298323716 1:1 2:0.564549 3:0.564182 4:1 5:1 6:-0.504459 7:-0.931607 8:0.52484 9:0.073491 10:-0.320257 11:-0.212422 12:-0.174128 
0.2900000194668516 1:-0.182796 2:0.0142094 3:-0.846811 4:-0.373175 5:-0.172612 6:-0.440271 7:0.480368 8:-0.859802 9:0.644717 10:-0.176261 11:-0.9152 12:0.760243 
0.4039676310001257 1:-0.293786 2:-0.152891 3:-0.721759 4:-0.478569 5:-0.229929 6:0.0605223 7:0.647927 8:-0.407724 9:1 10:0.0398955 11:-0.616663 12:1 
0.1349649658702853 1:0.273112 2:0.748526 3:0.521446 4:0.434639 5:0.449062 6:-0.626947 7:-0.529974 8:0.251736 9:0.2411 10:0.109055 11:-0.119557 12:0.00770872 
0.003747825371236157 1:0.313731 2:0.750738 3:0.260306 4:0.54197 5:0.517204 6:-0.260657 7:-0.76389 8:0.160109 9:0.280988 10:-0.203628 11:-0.373726 12:-0.291747 
0.2880323285702728 1:0.0457296 2:-0.291289 3:0.00995251 4:0.21767 5:0.26904 6:-0.623774 7:-0.56147 8:-0.0843447 9:0.06037 10:-0.270524 11:-0.125148 12:-0.0394725 
0.06865474024029494 1:0.18198 2:0.250145 3:-0.0430391 4:0.12798 5:0.269875 6:-0.303063 7:-0.380691 8:-0.0248672 9:0.185827 10:-0.435386 11:-0.067726 12:-0.546576 
0.5676780299118814 1:0.359271 2:-1 3:0.028941 4:0.592009 5:0.549909 6:-0.339623 7:-0.482683 8:0.382988 9:0.33816 10:-0.140728 11:0.0968389 12:-0.204035 
0.3840882225974146 1:-0.450762 2:-0.601339 3:-0.852345 4:-0.553061 5:-0.419338 6:-0.00600513 7:0.383242 8:-0.446798 9:0.379209 10:0.09619 11:-0.935211 12:0.409061 
0.03571489827058607 1:-0.191195 2:0.172995 3:-0.813559 4:-0.441808 5:-0.213108 6:-0.318949 7:0.677024 8:-0.800455 9:0.803128 10:0.0129035 11:-0.6812 12:0.897709 
0.1129633436482824 1:-0.375707 2:0.187319 3:-0.968547 4:-0.632123 5:-0.43534 6:-0.00963747 7:0.696028 8:-0.519751 9:0.0855377 10:0.68142 11:-0.954109 12:-0.360917 
0.06915295535541553 1:-0.0968673 2:-0.00263937 3:-0.34116 4:-0.0994396 5:-0.0861936 6:0.0146741 7:-0.120386 8:-0.0749817 9:0.563771 10:-0.194957 11:-0.0737416 12:-0.0393893 
0.3064694406132993 1:-0.589729 2:-0.0145442 3:-0.0721383 4:-0.435643 5:-0.490951 6:-0.494588 7:0.249662 8:0.215241 9:0.0466805 10:-0.0113744 11:-0.508774 12:-0.151874 
0.4036173894192751 1:-0.486908 2:-0.654778 3:0.725954 4:-0.040874 5:-0.197967 6:0.164236 7:-0.0538957 8:0.771791 9:0.502363 10:0.218216 11:0.157221 12:0.120759 
0.5255198676030343 1:0.1689 2:-0.159307 3:0.724352 4:0.430985 5:0.165652 6:0.319062 7:-0.416993 8:1 9:0.697908 10:-0.0966928 11:0.465076 12:-0.020271 
0.2175584822472674 1:-0.125024 2:-0.380072 3:-0.0966496 4:-0.148251 5:-0.226629 6:-0.403228 7:-0.128442 8:-0.0455527 9:0.312753 10:-0.0412385 11:-0.130374 12:-0.0352783 
0.1903603512549076 1:0.348803 2:0.147905 3:0.427521 4:0.480869 5:0.684741 6:-0.315809 7:-0.454409 8:0.51186 9:0.17238 10:-0.510118 11:0.0973258 12:-0.49591 
0.3965310083784722 1:0.638846 2:0.781105 3:1 4:0.677788 5:0.912211 6:-0.497026 7:-0.496679 8:0.535393 9:0.0326899 10:-0.0565355 11:-0.134114 12:-0.0756982 
0.03865182178884929 1:-0.329628 2:0.269936 3:-0.846625 4:-0.512328 5:-0.335936 6:-0.271018 7:0.58122 8:-0.676634 9:0.536152 10:0.0206932 11:-0.94737 12:0.551203 
0.03641763343342709 1:0.384554 2:0.338188 3:0.333463 4:0.355543 5:0.351343 6:-0.0757778 7:-0.423867 8:0.575427 9:0.558331 10:-0.244307 11:0.416572 12:-0.0384872 
0.1063203439124478 1:0.664259 2:0.136294 3:0.12437 4:0.481466 5:0.341535 6:0.0404159 7:-0.655622 8:0.275841 9:0.50551 10:-0.215845 11:-0.117848 12:0.0282534 
