svm_type c_svc
kernel_type rbf
gamma 0.0833333
nr_class 3
total_sv 72
rho 1.1015 0.9516 0.2526
label 1 2 3
nr_sv 26 25 21
SV
1 0 1:-0.764789 2:0.594209 3:-0.397411 4:-0.701820 5:-0.639576 6:-0.226292 7:0.410330 8:0.105539 9:0.317128 10:-0.452064 11:0.102341 12:-0.115736 
1 0 1:-0.807795 2:0.527385 3:-0.363645 4:-0.703350 5:-0.649855 6:-0.205661 7:0.403835 8:0.125631 9:0.299944 10:-0.456420 11:0.121847 12:-0.151226 
1 0 1:-0.810703 2:0.402599 3:-0.397629 4:-0.735184 5:-0.689886 6:-0.195044 7:0.427953 8:0.173151 9:0.316751 10:-0.462398 11:0.026354 12:-0.166587 
1 0 1:-0.807725 2:0.493654 3:-0.355719 4:-0.722055 5:-0.690608 6:-0.083197 7:0.401489 8:0.161141 9:0.320066 10:-0.419487 11:0.157436 12:-0.168517 
1 0 1:-0.796828 2:0.476239 3:-0.357821 4:-0.715314 5:-0.667927 6:-0.213277 7:0.399670 8:0.152989 9:0.317162 10:-0.426243 11:0.199197 12:-0.101616 
1 1 1:-0.789099 2:0.580779 3:-0.359890 4:-0.701468 5:-0.625921 6:-0.010748 7:0.302548 8:0.243404 9:0.478009 10:-0.250619 11:0.253297 12:0.131996 
1 0 1:-0.743247 2:0.769252 3:-0.205093 4:-0.570384 5:-0.512753 6:-0.109505 7:0.211283 8:0.130543 9:0.491021 10:-0.418168 11:0.296939 12:-0.022006 
1 0 1:-0.823701 2:0.702746 3:-0.241765 4:-0.659072 5:-0.682248 6:0.135074 7:0.242931 8:0.253643 9:0.501406 10:-0.313933 11:0.281487 12:0.086543 
1 0 1:-0.771920 2:0.885429 3:-0.228650 4:-0.627680 5:-0.619965 6:-0.049970 7:0.230521 8:0.146337 9:0.517335 10:-0.395433 11:0.323194 12:0.168885 
1 0 1:-0.881098 2:0.784437 3:-0.268050 4:-0.701278 5:-0.764381 6:0.316293 7:0.336591 8:0.274539 9:0.547087 10:-0.298604 11:0.248436 12:-0.004269 
0 1 1:-0.528410 2:0.584165 3:0.021015 4:-0.420983 5:-0.127278 6:-0.880742 7:0.163366 8:0.409984 9:0.415612 10:-0.660893 11:-0.147522 12:-0.379381 
0 1 1:-0.732617 2:0.196944 3:-0.697118 4:-0.824953 5:-0.592463 6:-0.930535 7:0.642127 8:0.105243 9:0.202467 10:-0.356109 11:-0.291395 12:-0.384183 
0.987588 1 1:-0.728978 2:0.209544 3:-0.691190 4:-0.816050 5:-0.586413 6:-0.896494 7:0.636486 8:0.073904 9:0.190345 10:-0.369551 11:-0.314805 12:-0.368676 
0 1 1:-0.576497 2:0.677880 3:-0.557189 4:-0.621096 5:-0.398786 6:-0.942919 7:0.396404 8:-0.164669 9:0.356241 10:-0.517939 11:-0.200129 12:-0.447270 
1 0 1:-0.593410 2:0.707610 3:-0.587000 4:-0.647834 5:-0.431232 6:-0.930271 7:0.439213 8:-0.165386 9:0.259963 10:-0.508677 11:-0.131424 12:-0.364192 
1 0 1:-0.622655 2:0.665382 3:-0.587032 4:-0.661218 5:-0.449034 6:-0.906541 7:0.457258 8:-0.155594 9:0.258456 10:-0.543152 11:-0.185709 12:-0.421280 
1 1 1:-0.559514 2:0.696047 3:-0.558114 4:-0.612992 5:-0.386864 6:-0.949023 7:0.381014 8:-0.186246 9:0.337810 10:-0.477639 11:-0.242652 12:-0.486251 
1 1 1:-0.582000 2:0.645797 3:-0.565215 4:-0.627830 5:-0.401591 6:-0.952174 7:0.408845 8:-0.157720 9:0.318138 10:-0.457207 11:-0.168059 12:-0.409672 
0 1 1:-0.591513 2:0.651620 3:-0.570253 4:-0.635817 5:-0.408303 6:-0.960035 7:0.425695 8:-0.150912 9:0.320717 10:-0.427063 11:-0.080563 12:-0.360256 
0 1 1:-0.802589 2:0.443921 3:-0.308817 4:-0.673764 5:-0.625828 6:0.090325 7:0.375567 8:0.246080 9:0.746867 10:-0.001593 11:0.352204 12:-0.124994 
0 1 1:-0.788247 2:0.771857 3:-0.105324 4:-0.591485 5:-0.638268 6:0.364562 7:0.198462 8:0.405312 9:0.886121 10:-0.078756 11:0.329858 12:-0.212887 
0 1 1:-0.803945 2:0.776980 3:-0.086588 4:-0.559538 5:-0.599119 6:0.307595 7:0.168680 8:0.391566 9:0.879033 10:-0.139204 11:0.246253 12:-0.151656 
0 1 1:-0.786626 2:0.770075 3:-0.104486 4:-0.571536 5:-0.587576 6:0.321110 7:0.186141 8:0.374662 9:0.879727 10:-0.098606 11:0.293182 12:-0.193887 
0 0.532243 1:-0.735545 2:0.244814 3:-0.628900 4:-0.807965 5:-0.585547 6:-0.842427 7:0.709869 8:0.117787 9:0.457154 10:-0.060572 11:0.166869 12:-0.188230 
0.445659 0 1:-0.767525 2:0.765923 3:-0.268660 4:-0.642680 5:-0.617677 6:0.077488 7:0.313045 8:0.192519 9:0.567681 10:-0.252211 11:0.310450 12:0.003076 
1 0.974689 1:-0.751190 2:0.725219 3:-0.250526 4:-0.596552 5:-0.534396 6:0.038396 7:0.272839 8:0.182241 9:0.584375 10:-0.194566 11:0.386428 12:-0.036648 
0 0.816188 1:-0.635203 2:-0.586348 3:-0.859103 4:-0.706397 5:-0.573408 6:-0.068481 7:0.163236 8:-0.888229 9:-0.237880 10:-0.425739 11:0.165838 12:0.287425 
0 1 1:-0.695491 2:-0.605600 3:-0.860209 4:-0.750050 5:-0.641640 6:-0.252549 7:0.241685 8:-0.880320 9:-0.336117 10:-0.595694 11:0.078375 12:0.237332 
-1 0 1:-0.717071 2:0.730523 3:-0.876435 4:-0.851984 5:-0.734328 6:-0.190560 7:0.561161 8:-0.500995 9:-0.422855 10:-0.774876 11:0.023609 12:0.051346 
-1 0 1:-0.764644 2:0.725005 3:-0.856039 4:-0.873580 5:-0.750588 6:-0.358558 7:0.603159 8:-0.385711 9:-0.409568 10:-0.924085 11:-0.145268 12:0.142419 
-1 1 1:-0.780693 2:0.733825 3:-0.865312 4:-0.918109 5:-0.749227 6:-0.422409 7:0.743808 8:-0.262788 9:-0.382195 10:-0.857276 11:-0.374070 12:-0.327768 
-1 0 1:-0.679030 2:0.729632 3:-0.855681 4:-0.833611 5:-0.695567 6:-0.055724 7:0.546190 8:-0.460882 9:-0.431677 10:-0.793256 11:-0.086139 12:-0.275818 
-0.858296 0 1:-0.683031 2:-0.275640 3:-0.738224 4:-0.757938 5:-0.653282 6:0.013679 7:0.336569 8:-0.355749 9:-0.261486 10:-0.808933 11:0.062833 12:0.221407 
-1 1 1:-0.722755 2:-0.023379 3:-0.827808 4:-0.838861 5:-0.744994 6:-0.214878 7:0.530185 8:-0.372580 9:-0.338753 10:-0.835120 11:-0.041372 12:0.126237 
-0.554623 1 1:-0.224698 2:0.589967 3:-0.053169 4:-0.014331 5:0.118149 6:0.149656 7:-0.784489 8:-0.175986 9:0.302625 10:-0.180211 11:0.532867 12:0.034815 
0 0.752719 1:-0.628776 2:-0.042814 3:-0.298378 4:-0.517582 5:-0.529680 6:0.178517 7:-0.006073 8:-0.327930 9:-0.198491 10:-0.224998 11:0.070332 12:0.233981 
-0.607071 0 1:-0.749017 2:0.235814 3:-0.925339 4:-0.871219 5:-0.715995 6:-0.295323 7:0.612483 8:-0.602596 9:-0.548672 10:-0.502332 11:0.102979 12:-0.152923 
-0.017588 0 1:-0.649614 2:0.766879 3:-0.869046 4:-0.735478 5:-0.659442 6:0.199680 7:0.350403 8:-0.837353 9:0.010704 10:-0.276377 11:0.559353 12:0.194262 
0 1 1:-0.659499 2:-0.021335 3:-0.457935 4:-0.637466 5:-0.584528 6:0.333352 7:0.146074 8:-0.400323 9:-0.269024 10:-0.442818 11:-0.467249 12:0.079326 
-1 1 1:-0.606469 2:0.781383 3:-0.310305 4:-0.530074 5:-0.514083 6:0.343726 7:0.008697 8:-0.272444 9:-0.094057 10:-0.646360 11:-0.752184 12:0.308330 
0 1 1:-0.522061 2:0.521626 3:0.243618 4:-0.037771 5:-0.333261 6:0.912088 7:-0.717972 8:0.320474 9:0.275547 10:0.780649 11:0.511089 12:-0.532760 
-1 1 1:-0.214520 2:0.810585 3:-0.004686 4:-0.001493 5:-0.167542 6:0.297115 7:-0.680046 8:-0.094046 9:0.562754 10:0.363605 11:-0.198762 12:0.305516 
-1 0 1:-0.549590 2:0.786279 3:-0.666633 4:-0.543958 5:-0.584448 6:0.653689 7:-0.191396 8:-0.417115 9:0.306508 10:-0.329769 11:0.290301 12:-0.426625 
-1 1 1:-0.578753 2:0.629490 3:-0.446965 4:-0.557967 5:-0.465112 6:-0.335920 7:0.004232 8:-0.573569 9:-0.197147 10:-0.328393 11:-0.225151 12:0.161489 
0 1 1:-0.378304 2:-0.249308 3:-0.221139 4:-0.115011 5:-0.223310 6:0.709587 7:-0.643144 8:-0.014138 9:0.480871 10:0.651520 11:0.188954 12:-0.945947 
-1 1 1:-0.434742 2:0.458258 3:-0.404958 4:-0.432431 5:-0.428193 6:-0.448528 7:-0.335548 8:-0.638355 9:0.084461 10:0.431088 11:0.601738 12:0.458023 
-1 1 1:-0.469697 2:0.150998 3:-0.673899 4:-0.358572 5:-0.505711 6:1.000000 7:-0.449400 8:-0.109615 9:0.723845 10:0.521889 11:0.471178 12:-1.000000 
-1 0 1:-0.778652 2:0.119741 3:-0.699794 4:-0.841219 5:-0.725170 6:0.068023 7:0.516149 8:-0.205859 9:-0.676830 10:-0.500874 11:0.041453 12:-0.418897 
-1 1 1:-0.457865 2:0.833315 3:0.157674 4:-0.206410 5:-0.250378 6:0.147853 7:-0.245251 8:0.132721 9:0.230969 10:0.109778 11:0.065426 12:-0.279254 
-1 1 1:-0.439207 2:0.725241 3:-0.318486 4:-0.359498 5:-0.308395 6:-0.187404 7:-0.235190 8:-0.309601 9:0.385647 10:0.208646 11:0.064182 12:0.187006 
-0.395669 0.270508 1:-0.700956 2:-0.469392 3:-0.501098 4:-0.618524 5:-0.681853 6:0.850931 7:-0.074395 8:-0.017297 9:0.315325 10:-0.000826 11:1.000000 12:0.841026 
0 -1 1:-0.509221 2:-0.343824 3:-0.942342 4:-0.670628 5:-0.376148 6:-0.612558 7:0.574685 8:-0.890616 9:0.411563 10:-0.037057 11:-0.754195 12:0.679623 
-1 -1 1:-0.781025 2:-0.133608 3:0.728422 4:-0.081020 5:-0.446915 6:0.846881 7:-0.384601 8:0.901811 9:0.658608 10:0.100304 11:0.482400 12:0.074172 
-1 -1 1:-0.550597 2:0.379667 3:0.287573 4:-0.102373 5:-0.337681 6:0.500118 7:-0.337480 8:0.598277 9:0.601249 10:0.062536 11:0.269686 12:-0.259135 
-1 0 1:-0.024269 2:0.701443 3:0.307709 4:0.007386 5:0.314136 6:-0.924061 7:-0.392759 8:0.350121 9:0.325476 10:-0.386057 11:-0.343074 12:0.077610 
-1 -1 1:-0.537316 2:0.122517 3:-1.000000 4:-0.795252 5:-0.492073 6:-0.490068 7:0.769045 8:-0.458775 9:0.072679 10:0.559393 11:-0.815339 12:-0.447134 
-0.948402 -0.900305 1:-0.353944 2:0.720093 3:-0.827533 4:-0.552420 5:-0.228871 6:-0.771991 7:0.517723 8:-0.776098 9:0.740834 10:-0.152508 11:-0.887400 12:0.818384 
0 -1 1:0.299697 2:0.133892 3:0.146860 4:0.276870 5:0.333225 6:0.307541 7:-0.569554 8:0.569973 9:0.465442 10:-0.331072 11:0.276601 12:-0.151140 
-1 -1 1:-0.072710 2:0.385468 3:0.025563 4:-0.001255 5:0.205818 6:-0.222418 7:-0.468885 8:0.158320 9:0.418028 10:-0.122137 11:0.269422 12:-0.298862 
0 -1 1:0.050228 2:0.687123 3:0.247039 4:0.225728 5:0.413184 6:-0.552748 7:-0.703626 8:0.263856 9:0.408398 10:-0.203360 11:-0.347308 12:-0.251219 
-0.995328 -1 1:-0.173091 2:0.065371 3:0.061564 4:0.012436 5:-0.002549 6:-0.181895 7:-0.474298 8:0.183792 9:0.601167 10:-0.335784 11:-0.005953 12:-0.157795 
-1 -1 1:-0.056955 2:0.119361 3:-0.050137 4:-0.130610 5:0.182486 6:-0.619548 7:-0.307464 8:0.068119 9:0.294582 10:-0.425351 11:-0.056778 12:-0.505499 
-1 0 1:-0.361864 2:0.672019 3:-0.805060 4:-0.615817 5:-0.267374 6:-0.625842 7:0.727872 8:-0.703975 9:0.923793 10:0.035590 11:-0.633475 12:0.955889 
-0.531420 -1 1:-0.551590 2:-0.210369 3:-0.981999 4:-0.780660 5:-0.523529 6:-0.007033 7:0.787585 8:-0.448019 9:0.210767 10:0.767358 11:-0.757745 12:-0.251556 
-1 -1 1:-0.514169 2:0.522983 3:-0.970124 4:-0.780133 5:-0.474305 6:-0.238772 7:0.761110 8:-0.455814 9:0.230084 10:0.600026 11:-0.825477 12:-0.365663 
0 -0.971845 1:-0.684704 2:-0.362895 3:-0.782449 4:-0.713009 5:-0.592323 6:0.225951 7:0.377902 8:-0.284003 9:0.958836 10:0.251283 11:-0.681603 12:0.880740 
0 -0.219377 1:0.241835 2:0.214498 3:0.243094 4:0.177188 5:0.348118 6:-0.557459 7:-0.630495 8:0.302484 9:0.173349 10:-0.045073 11:-0.118902 12:-0.382781 
0 -1 1:-0.587390 2:-0.339090 3:-0.777278 4:-0.644819 5:-0.376789 6:-0.025527 7:0.446805 8:-0.318435 9:0.633160 10:-0.026937 11:-0.734136 12:0.682957 
-1 -1 1:-0.285228 2:-0.258524 3:-0.364666 4:-0.330946 5:-0.148962 6:-0.213624 7:-0.028282 8:0.007289 9:0.719308 10:-0.194686 11:-0.047570 12:0.015763 
-1 -0.747888 1:-0.687893 2:-0.273467 3:-0.091065 4:-0.622733 5:-0.526049 6:-0.840881 7:0.360077 8:0.324024 9:0.150786 10:-0.011031 11:-0.482245 12:-0.103241 
-0.031781 0 1:-0.308232 2:-0.730621 3:-0.144723 4:-0.382743 5:-0.281308 6:-0.727465 7:-0.029118 8:0.030284 9:0.451930 10:-0.048175 11:-0.099180 12:0.015058 
-1 0 1:-0.476627 2:0.283387 3:-0.851487 4:-0.681327 5:-0.382736 6:-0.541238 7:0.642844 8:-0.590455 9:0.660986 10:0.007998 11:-0.850852 12:0.554438 
