svm_type c_svc
kernel_type rbf
gamma 0.0833333
nr_class 3
total_sv 83
rho 0.92346 0.807339 0.317291
label 1 2 3
nr_sv 34 26 23
SV
1 0 1:-0.683849 2:0.676715 3:-0.373358 4:-0.526768 5:-0.612809 6:0.0043889 7:0.297547 8:0.0150445 9:0.197974 10:-0.452234 11:0.0762929 12:-0.163685 
1 0 1:-0.736489 2:0.623478 3:-0.340157 4:-0.528531 5:-0.623843 6:0.0211387 7:0.291358 8:0.0334543 9:0.182344 10:-0.456589 11:0.0958142 12:-0.197231 
0.007069757071726714 0 1:-0.740047 2:0.524064 3:-0.373572 4:-0.565211 5:-0.666812 6:0.0297587 7:0.314339 8:0.0769965 9:0.197631 10:-0.462565 11:0.000243191 12:-0.211751 
1 0 1:-0.738066 2:0.603434 3:-0.332683 4:-0.542217 5:-0.687437 6:0.145054 7:0.277392 8:0.0717104 9:0.244307 10:-0.45293 11:0.0755113 12:-0.130741 
1 0 1:-0.736402 2:0.596605 3:-0.332363 4:-0.550084 5:-0.667586 6:0.120566 7:0.289122 8:0.0659921 9:0.200646 10:-0.41967 11:0.131432 12:-0.213575 
1 0 1:-0.825016 2:0.759412 3:-0.298136 4:-0.534422 5:-0.752538 6:0.533143 7:0.236575 8:0.205994 9:0.452528 10:-0.359712 11:0.0127344 12:-0.0592634 
0 1 1:-0.873167 2:-0.224273 3:-0.896159 4:-0.980531 5:-0.858434 6:-0.274597 7:0.930736 8:0.447598 9:0.0435146 10:-0.292805 11:-0.473486 12:-0.489803 
1 1 1:-0.859037 2:-0.33424 3:-0.898026 4:-0.974153 5:-0.846776 6:-0.300706 7:0.891763 8:0.437073 9:0.0060453 10:-0.338224 11:-0.549061 12:-0.542398 
0 1 1:-0.877586 2:-0.379233 3:-0.881091 4:-0.987929 5:-0.872963 6:-0.233738 7:0.849808 8:0.510954 9:0.100039 10:-0.315934 11:-0.523208 12:-0.507304 
0.7142108973517834 1 1:-0.882195 2:-0.419332 3:-0.895815 4:-0.997161 5:-0.878394 6:-0.265073 7:0.852603 8:0.502717 9:0.060674 10:-0.31116 11:-0.521256 12:-0.496162 
0 0.3124786715591266 1:-0.444804 2:0.771384 3:0.116302 4:-0.211041 5:-0.0979645 6:-0.549303 7:0.0702899 8:0.406831 9:0.304384 10:-0.695698 11:-0.249344 12:-0.511171 
0.2443004360158616 1 1:-0.673344 2:0.0884881 3:-0.658533 4:-0.687287 5:-0.592141 6:-0.513914 7:0.433624 8:0.0692143 9:0.0627892 10:-0.339316 11:-0.272727 12:-0.406101 
0 0.9715926222248928 1:-0.640016 2:0.37026 3:-0.662219 4:-0.658387 5:-0.555745 6:-0.53974 7:0.513039 8:-0.0139423 9:0.0826602 10:-0.369754 11:-0.341196 12:-0.40277 
0 1 1:-0.18459 2:0.760569 3:-0.197407 4:-0.054596 5:-9.24218e-05 6:-0.400149 7:-0.229904 8:-0.0373133 9:0.568292 10:-0.332509 11:0.086647 12:-0.422181 
0 1 1:-0.165655 2:0.850282 3:-0.107263 4:-0.0319317 5:0.0508128 6:-0.415148 7:-0.197711 8:0.0752174 9:0.629022 10:-0.329728 11:0.0838642 12:-0.396883 
0 1 1:-0.301938 2:0.839663 3:-0.0714968 4:-0.0744792 5:-0.0355927 6:-0.181911 7:-0.199567 8:0.0699034 9:0.636159 10:-0.236691 11:0.252488 12:-0.33068 
0 1 1:-0.270594 2:0.812714 3:-0.0768952 4:-0.0603834 5:-0.00428053 6:-0.25218 7:-0.180971 8:0.0796947 9:0.576395 10:-0.350476 11:0.164443 12:-0.375395 
0 1 1:-0.224118 2:0.844152 3:-0.142936 4:-0.0405846 5:-0.018268 6:-0.334385 7:-0.244464 8:0.0185647 9:0.607304 10:-0.313322 11:0.133869 12:-0.427017 
0 0.2221929525555412 1:-0.263547 2:0.894846 3:-0.0928591 4:-0.0595896 5:-0.0523437 6:-0.2124 7:-0.204989 8:0.0661376 9:0.630157 10:-0.270267 11:0.218973 12:-0.454086 
1 1 1:-0.45851 2:0.576452 3:-0.0189417 4:-0.0476225 5:-0.0922545 6:0.0930632 7:-0.295345 8:0.0524459 9:0.48226 10:-0.143449 11:0.549116 12:0.0491356 
1 1 1:-0.296059 2:0.658707 3:-0.0941498 4:0.00199059 5:0.0165513 6:-0.166586 7:-0.324679 8:0.00207178 9:0.493134 10:-0.26323 11:0.369503 12:-0.0802453 
0 1 1:-0.335062 2:0.664569 3:-0.034724 4:-0.0363402 5:-0.0773305 6:-0.051748 7:-0.272212 8:0.0747952 9:0.523011 10:-0.224851 11:0.368877 12:-0.0471579 
1 1 1:-0.28398 2:0.632807 3:-0.0292522 4:0.000187583 5:-0.00100999 6:-0.0725875 7:-0.303785 8:0.0915605 9:0.503467 10:-0.139329 11:0.434178 12:-0.0292549 
1 1 1:-0.333466 2:0.64114 3:-0.00660676 4:0.00063356 5:-0.0121558 6:0.0256367 7:-0.310007 8:0.113596 9:0.567634 10:-0.0986824 11:0.535929 12:-0.0404858 
1 1 1:-0.324173 2:0.740026 3:-0.0635228 4:-0.0248472 5:-0.0795569 6:0.0176134 7:-0.316327 8:0.0410651 9:0.508063 10:-0.17824 11:0.45642 12:0.0209383 
1 0 1:-0.474081 2:0.767059 3:-0.559773 4:-0.464564 5:-0.389176 6:-0.567162 7:0.325068 8:-0.233202 9:0.14598 10:-0.508825 11:-0.157665 12:-0.398531 
1 0 1:-0.432593 2:0.757847 3:-0.531371 4:-0.424419 5:-0.341553 6:-0.582387 7:0.269613 8:-0.252317 9:0.216785 10:-0.477799 11:-0.268984 12:-0.513904 
0.8722554417690295 0 1:-0.436883 2:0.706293 3:-0.516658 4:-0.40432 5:-0.323983 6:-0.605098 7:0.234123 8:-0.271986 9:0.205198 10:-0.448866 11:-0.0670092 12:-0.472665 
1 0 1:-0.464552 2:0.736632 3:-0.549276 4:-0.450992 5:-0.366366 6:-0.609502 7:0.295451 8:-0.247708 9:0.146328 10:-0.431092 11:-0.146316 12:-0.465577 
0.5120135739880247 0 1:-0.730931 2:0.851144 3:-0.179078 4:-0.367863 5:-0.555958 6:0.421906 7:0.0593049 8:0.0686084 9:0.540788 10:-0.189305 11:0.31346 12:0.0114133 
1 0 1:-0.698516 2:0.818711 3:-0.19354 4:-0.364821 5:-0.528452 6:0.389802 7:0.0276632 8:0.0132829 9:0.494173 10:-0.176925 11:0.354039 12:0.0834639 
1 0 1:-0.69558 2:0.824855 3:-0.203931 4:-0.412798 5:-0.546871 6:0.386144 7:0.0883803 8:0.0563374 9:0.440701 10:-0.207887 11:0.38116 12:0.0330604 
1 0 1:-0.794689 2:0.874251 3:-0.178935 4:-0.420178 5:-0.686895 6:0.550293 7:0.064434 8:0.0842323 9:0.475552 10:-0.203926 11:0.312556 12:-0.0569698 
1 0 1:-0.614733 2:0.6224 3:-0.234273 4:-0.405174 5:-0.526457 6:0.175883 7:0.108101 8:0.019188 9:0.418996 10:-0.208711 11:0.429446 12:0.0586418 
-0 0.9968287510692352 1:-0.52531 2:-0.262336 3:-0.827907 4:-0.532194 5:-0.541812 6:0.132514 7:0.0627397 8:-0.896573 9:-0.305891 10:-0.427313 11:0.141527 12:0.21571 
-0 1 1:-0.599028 2:-0.278463 3:-0.828728 4:-0.58242 5:-0.615015 6:-0.0169283 7:0.137227 8:-0.888877 9:-0.395616 10:-0.596627 11:0.0533201 12:0.169021 
-0 0.9512753348471229 1:-0.588582 2:-0.27724 3:-0.839267 4:-0.580613 5:-0.603759 6:0.0394746 7:0.12358 8:-0.89088 9:-0.399885 10:-0.485059 11:0.0899581 12:0.184733 
-1 0 1:-0.625443 2:0.789307 3:-0.846974 4:-0.700456 5:-0.714515 6:0.0334058 7:0.444353 8:-0.54474 9:-0.470569 10:-0.780755 11:0.00525773 12:-0.0132437 
-1 0 1:-0.683672 2:0.784816 3:-0.82588 4:-0.725068 5:-0.731968 6:-0.102992 7:0.483093 8:-0.437467 9:-0.46037 10:-0.92755 11:-0.16695 12:0.0758412 
-1 1 1:-0.703315 2:0.791683 3:-0.834612 4:-0.776265 5:-0.730507 6:-0.154828 7:0.616816 8:-0.324422 9:-0.43588 10:-0.860077 11:-0.396814 12:-0.367587 
-1 0 1:-0.57888 2:0.788663 3:-0.825633 4:-0.679054 5:-0.672909 6:0.142873 7:0.428793 8:-0.506317 9:-0.480535 10:-0.796627 11:-0.107989 12:-0.319131 
-1 0.4951716690454252 1:-0.583865 2:-0.0151313 3:-0.708492 4:-0.591435 5:-0.627552 6:0.199219 7:0.227284 8:-0.407714 9:-0.328302 10:-0.809045 11:0.0367699 12:0.154933 
-1 0 1:-0.6324 2:0.181459 3:-0.796569 4:-0.684677 5:-0.725963 6:0.0136557 7:0.411703 8:-0.422894 9:-0.398562 10:-0.83496 11:-0.0675396 12:0.0651771 
-1 1 1:-0.0227785 2:0.673335 3:-0.0348769 4:0.26537 5:0.200519 6:0.309616 7:-0.84094 8:-0.242916 9:0.184784 10:-0.180488 11:0.507173 12:-0.0213809 
-1 1 1:-0.517369 2:0.169212 3:-0.275982 4:-0.314486 5:-0.494849 6:0.333047 7:-0.0992242 8:-0.382141 9:-0.271 10:-0.225258 11:0.0442577 12:0.166876 
-0.8833733631918445 0 1:-0.542875 2:0.813909 3:-0.838598 4:-0.565917 5:-0.634054 6:0.350214 7:0.24182 8:-0.850695 9:-0.0786536 10:-0.279292 11:0.53724 12:0.126029 
-1 1 1:-0.490066 2:0.825833 3:-0.287709 4:-0.328879 5:-0.478107 6:0.467179 7:-0.0851512 8:-0.331299 9:-0.176013 10:-0.646455 11:-0.778934 12:0.237151 
-1 1 1:-0.38675 2:0.61889 3:0.256943 4:0.238362 5:-0.284016 6:0.928624 7:-0.77756 8:0.211988 9:0.160155 10:0.779995 11:0.485376 12:-0.557866 
-1 1 1:-0.0103201 2:0.849097 3:0.0127953 4:0.280163 5:-0.106136 6:0.429336 7:-0.741422 8:-0.167835 9:0.42138 10:0.363115 11:-0.225058 12:0.234492 
-1 1 1:-0.456142 2:0.704823 3:-0.422082 4:-0.361018 5:-0.425543 6:-0.0846165 7:-0.0894052 8:-0.607219 9:-0.269777 10:-0.328612 11:-0.251468 12:0.0983538 
-0.8309615935378971 1 1:-0.210792 2:0.0047031 3:-0.200036 4:0.149365 5:-0.165997 6:0.764216 7:-0.70626 8:-0.0946149 9:0.346904 10:0.650917 11:0.162977 12:-0.948419 
-1 0.1839647412795719 1:-0.279872 2:0.568406 3:-0.380778 4:-0.216373 5:-0.385915 6:-0.176041 7:-0.413165 8:-0.666582 9:-0.013645 10:0.430571 11:0.5761 12:0.378645 
-1 0.7675429111252432 1:-0.322656 2:0.322505 3:-0.646232 4:-0.131602 5:-0.469122 6:1 7:-0.521331 8:-0.182329 9:0.568382 10:0.520869 11:0.445975 12:-1 
-0.1868107124453173 0 1:-0.374183 2:0.808695 3:-0.610193 4:-0.164217 5:-0.298905 6:0.789001 7:-0.613913 8:-0.66768 9:0.397734 10:0.0577939 11:0.800161 12:-0.223975 
-1 0 1:-0.700909 2:0.297124 3:-0.672213 4:-0.68774 5:-0.704652 6:0.243336 7:0.399312 8:-0.271535 9:-0.704448 10:-0.503116 11:0.0183762 12:-0.453252 
-0.2562464333700041 0 1:-0.70733 2:0.829169 3:-0.716971 4:-0.616341 5:-0.669308 6:0.65768 7:0.337555 8:-0.47148 9:-0.226927 10:-1 11:-0.204419 12:0.22695 
-0.1924580036513631 0 1:-0.739212 2:0.332641 3:-0.543593 4:-0.564014 5:-0.718776 6:0.572561 7:0.122926 8:-0.408159 9:-0.460242 10:-0.805217 11:0.260555 12:-0.428236 
-1 1 1:-0.308175 2:0.867205 3:0.172437 4:0.0440529 5:-0.195051 6:0.308152 7:-0.327126 8:0.0399509 9:0.11961 10:0.109388 11:0.0393468 12:-0.318246 
-1 1 1:-0.285337 2:0.781105 3:-0.295753 4:-0.132338 5:-0.257326 6:0.0359614 7:-0.317539 8:-0.365346 9:0.260294 10:0.208217 11:0.0381021 12:0.122473 
-1 0 1:-0.606178 2:-0.170101 3:-0.4975 4:-0.436563 5:-0.657853 6:0.878931 7:-0.155062 8:-0.112036 9:0.212337 10:-0.0216288 11:1 12:0.714594 
-0.9336945770989485 -0.232955552260631 1:-0.467535 2:0.133529 3:-0.953937 4:-0.692394 5:-0.451856 6:-0.238489 7:1 8:-0.518704 9:0.162297 10:1 11:-0.718796 12:-0.105287 
-0 -1 1:-0.36666 2:-0.149108 3:-0.909465 4:-0.490489 5:-0.328181 6:-0.311551 7:0.450522 8:-0.888898 9:0.282598 10:-0.0360883 11:-0.777183 12:0.585079 
-0 -0.06158687407259525 1:-0.2009 2:-0.0116053 3:-0.880712 4:-0.305465 5:-0.220182 6:-0.142139 7:0.257221 8:-0.911015 9:0.860433 10:0.218023 11:-0.776599 12:0.889384 
-0.5487646160816453 -1 1:-0.700758 2:-0.772997 3:0.713581 4:0.181079 5:-0.408115 6:0.873943 7:-0.388047 8:0.697608 9:0.434668 10:0.0620267 11:0.367067 12:-0.0221115 
-1 -0.1825729314476718 1:-1 2:-0.98395 3:-0.481017 4:-1 5:-1 6:-1 7:0.0304164 8:0.646195 9:0.296583 10:0.139134 11:0.099774 12:0.157195 
-1 -1 1:-0.423892 2:-0.591776 3:0.269381 4:0.151843 5:-0.289547 6:0.591522 7:-0.3701 8:0.471942 9:0.426925 10:0.0321334 11:0.207538 12:-0.300344 
-1 -0.4877931970648364 1:0.222546 2:0.765437 3:0.322482 4:0.291515 5:0.411289 6:-0.561804 7:-0.468502 8:0.239529 9:0.204998 10:-0.385026 11:-0.368798 12:0.0211136 
-1 -1 1:-0.403485 2:-0.125882 3:-1 4:-0.648354 5:-0.454679 6:-0.213323 7:0.708383 8:-0.530536 9:-0.0410648 10:0.625733 11:-0.919804 12:-0.430161 
-0 -0.1285382881142798 1:0.766924 2:0.523065 3:0.229142 4:0.759153 5:0.639362 6:-0.161822 7:-1 8:0.269058 9:0.492687 10:-0.0375451 11:0.0837146 12:-0.0452998 
-0.4214367716292349 -0 1:0.539263 2:0.56729 3:0.175257 4:0.40924 5:0.468158 6:-0.299591 7:-0.590598 8:0.233088 9:0.387489 10:-0.328656 11:-0.218728 12:-0.174864 
-1 -0 1:0.273112 2:0.748526 3:0.521446 4:0.434639 5:0.449062 6:-0.626947 7:-0.529974 8:0.251736 9:0.2411 10:0.109055 11:-0.119557 12:0.00770872 
-1 -1 1:0.180945 2:0.354771 3:0.029667 4:0.275679 5:0.307022 6:2.57069e-05 7:-0.530082 8:0.0631886 9:0.29675 10:-0.134127 11:0.254975 12:-0.349329 
-0.6023682815297317 -1 1:0.313731 2:0.750738 3:0.260306 4:0.54197 5:0.517204 6:-0.260657 7:-0.76389 8:0.160109 9:0.280988 10:-0.203628 11:-0.373726 12:-0.291747 
-1 -1 1:0.0403889 2:0.255787 3:0.0890848 4:0.312198 5:0.126068 6:0.0260295 7:-0.553277 8:0.0900984 9:0.450664 10:-0.331863 11:-0.0405968 12:-0.19889 
-1 -1 1:0.18198 2:0.250145 3:-0.0430391 4:0.12798 5:0.269875 6:-0.303063 7:-0.380691 8:-0.0248672 9:0.185827 10:-0.435386 11:-0.067726 12:-0.546576 
-1 -0 1:-0.456577 2:-0.33816 3:-0.817676 4:-0.598116 5:-0.355837 6:-0.231873 7:0.604965 8:-0.345767 9:0.5712 10:-0.0333505 11:-0.644561 12:0.628757 
-1 -1 1:-0.375707 2:0.187319 3:-0.968547 4:-0.632123 5:-0.43534 6:-0.00963747 7:0.696028 8:-0.519751 9:0.0855377 10:0.68142 11:-0.954109 12:-0.360917 
-0 -1 1:-0.466713 2:-0.320369 3:-0.783849 4:-0.475712 5:-0.330393 6:0.158542 7:0.370344 8:-0.394187 9:0.497427 10:-0.0233148 11:-0.784933 12:0.62321 
-1 -1 1:-0.0968673 2:-0.00263937 3:-0.34116 4:-0.0994396 5:-0.0861936 6:0.0146741 7:-0.120386 8:-0.0749817 9:0.563771 10:-0.194957 11:-0.0737416 12:-0.0393893 
-1 -1 1:-0.589729 2:-0.0145442 3:-0.0721383 4:-0.435643 5:-0.490951 6:-0.494588 7:0.249662 8:0.215241 9:0.0466805 10:-0.0113744 11:-0.508774 12:-0.151874 
-1 -0 1:-0.125024 2:-0.380072 3:-0.0966496 4:-0.148251 5:-0.226629 6:-0.403228 7:-0.128442 8:-0.0455527 9:0.312753 10:-0.0412385 11:-0.130374 12:-0.0352783 
-1 -1 1:-0.329628 2:0.269936 3:-0.846625 4:-0.512328 5:-0.335936 6:-0.271018 7:0.58122 8:-0.676634 9:0.536152 10:0.0206932 11:-0.94737 12:0.551203 
-1 -0.3013365644065843 1:0.384554 2:0.338188 3:0.333463 4:0.355543 5:0.351343 6:-0.0757778 7:-0.423867 8:0.575427 9:0.558331 10:-0.244307 11:0.416572 12:-0.0384872 
